{
    "levels": [
        {
            "inputs": [
                0.2120088797797236, 0, 0.6711372460004255, 0, 0.5570922653542779
            ],
            "outputs": [1, 0, 0, 1, 0, 0],
            "biases": [
                -0.04674083396213983, 0.13306264932805706, 0.16069826590227335,
                -0.2840294608748399, 0.04406115264986805, 0.1418274055220853
            ],
            "weights": [
                [
                    -0.07482580109494483, -0.11288051657031448,
                    -0.20332404359193915, -0.4112523057738104,
                    -0.1742298132383015, -0.263194319416466
                ],
                [
                    0.13162493402839076, 0.4197101819307189,
                    0.16553312630007166, -0.16859760447475153,
                    -0.158594058786107, 0.08250493283948777
                ],
                [
                    0.11434842616129182, -0.19336668583128924,
                    0.16212970268541166, 0.10821562709446382,
                    0.16838088804313023, -0.0737415162421374
                ],
                [
                    0.3868285293905855, -0.004830776362863873,
                    0.10104952896029823, 0.000450018437540679,
                    0.0637216751341009, 0.16120951013322551
                ],
                [
                    0.0984636594003109, -0.07915738809090866,
                    0.1687762219643468, 0.1820028984352982,
                    -0.25625931566886095, 0.20848513484117331
                ]
            ]
        },
        {
            "inputs": [1, 0, 0, 1, 0, 0],
            "outputs": [1, 0, 0, 0],
            "biases": [
                -0.10867343687017966, 0.0915321059762117, -0.03824905372093078,
                0.12860609761202102
            ],
            "weights": [
                [
                    0.14685974262328888, -0.3329761569006988,
                    0.24383563180061618, 0.17876180434453548,
                    -0.10662233967781866, 0.11166044292893944
                ],
                [
                    0.11312699834294664, 0.19255936130035073,
                    0.20216865300582082, -0.14102331820752545,
                    0.13458590464187636, 0.07471854069339795
                ],
                [
                    -0.14438347974964733, 0.07994699738782782,
                    -0.2005599983119061, 0.21571825825663016,
                    -0.1149650812268504, 0.12076619247791805
                ],
                [
                    0.2720868547678254, 0.30009102627299644,
                    -0.30331464928101476, -0.09961158577216747,
                    -0.007110276959774703, 0.15197931051741267
                ],
                [
                    -0.06309069163834272, 0.1433724613571782,
                    -0.1369143191383666, 0.22144003567441525,
                    0.13756815743978656, 0.07784587952203864
                ],
                [
                    0.2736659195797293, 0.3357210617528935,
                    -0.13996573267003043, -0.001462432725222812,
                    0.015012499301427298, 0.2711601375316735
                ]
            ]
        }
    ]
}
